~o
<STREAMINFO> 1 39
<VECSIZE> 39<NULLD><MFCC_D_A_Z_0><DIAGC>
~h "proto"
<BEGINHMM>
<NUMSTATES> 5
<STATE> 2
<MEAN> 39
 4.987251e-06 1.231667e-06 -2.022751e-06 1.578512e-06 -9.156983e-06 8.220124e-06 -5.028247e-06 -2.886902e-06 -3.470039e-07 -1.017870e-06 -3.656083e-07 -4.422163e-06 -3.681922e-07 -1.826105e-03 -5.185697e-04 3.366191e-04 -6.140975e-03 1.943089e-03 -5.133985e-03 -4.446142e-03 2.667263e-05 -5.568818e-03 -2.658173e-03 3.523651e-03 3.588120e-03 -5.943541e-04 2.931416e-04 6.845428e-05 1.374376e-04 5.053810e-04 3.349423e-04 2.620169e-04 -5.714060e-04 -1.130585e-05 -9.574201e-04 4.278770e-04 3.069058e-04 1.367033e-03 2.865240e-04
<VARIANCE> 39
 1.871846e+02 1.364697e+02 2.175460e+02 1.526008e+02 2.319587e+02 2.022139e+02 2.147729e+02 1.637577e+02 1.936410e+02 1.332145e+02 1.152525e+02 1.805943e+02 4.567231e+02 9.273699e+00 6.687650e+00 1.074288e+01 9.849487e+00 1.427223e+01 1.303016e+01 1.192496e+01 1.233824e+01 1.198256e+01 1.057268e+01 8.962433e+00 1.012724e+01 9.489470e+00 1.371248e+00 1.073804e+00 1.748042e+00 1.697478e+00 2.528071e+00 2.288778e+00 2.146236e+00 2.317448e+00 2.210073e+00 2.042326e+00 1.697587e+00 1.829344e+00 1.417115e+00
<GCONST> 1.781143e+02
<STATE> 3
<MEAN> 39
 4.987251e-06 1.231667e-06 -2.022751e-06 1.578512e-06 -9.156983e-06 8.220124e-06 -5.028247e-06 -2.886902e-06 -3.470039e-07 -1.017870e-06 -3.656083e-07 -4.422163e-06 -3.681922e-07 -1.826105e-03 -5.185697e-04 3.366191e-04 -6.140975e-03 1.943089e-03 -5.133985e-03 -4.446142e-03 2.667263e-05 -5.568818e-03 -2.658173e-03 3.523651e-03 3.588120e-03 -5.943541e-04 2.931416e-04 6.845428e-05 1.374376e-04 5.053810e-04 3.349423e-04 2.620169e-04 -5.714060e-04 -1.130585e-05 -9.574201e-04 4.278770e-04 3.069058e-04 1.367033e-03 2.865240e-04
<VARIANCE> 39
 1.871846e+02 1.364697e+02 2.175460e+02 1.526008e+02 2.319587e+02 2.022139e+02 2.147729e+02 1.637577e+02 1.936410e+02 1.332145e+02 1.152525e+02 1.805943e+02 4.567231e+02 9.273699e+00 6.687650e+00 1.074288e+01 9.849487e+00 1.427223e+01 1.303016e+01 1.192496e+01 1.233824e+01 1.198256e+01 1.057268e+01 8.962433e+00 1.012724e+01 9.489470e+00 1.371248e+00 1.073804e+00 1.748042e+00 1.697478e+00 2.528071e+00 2.288778e+00 2.146236e+00 2.317448e+00 2.210073e+00 2.042326e+00 1.697587e+00 1.829344e+00 1.417115e+00
<GCONST> 1.781143e+02
<STATE> 4
<MEAN> 39
 4.987251e-06 1.231667e-06 -2.022751e-06 1.578512e-06 -9.156983e-06 8.220124e-06 -5.028247e-06 -2.886902e-06 -3.470039e-07 -1.017870e-06 -3.656083e-07 -4.422163e-06 -3.681922e-07 -1.826105e-03 -5.185697e-04 3.366191e-04 -6.140975e-03 1.943089e-03 -5.133985e-03 -4.446142e-03 2.667263e-05 -5.568818e-03 -2.658173e-03 3.523651e-03 3.588120e-03 -5.943541e-04 2.931416e-04 6.845428e-05 1.374376e-04 5.053810e-04 3.349423e-04 2.620169e-04 -5.714060e-04 -1.130585e-05 -9.574201e-04 4.278770e-04 3.069058e-04 1.367033e-03 2.865240e-04
<VARIANCE> 39
 1.871846e+02 1.364697e+02 2.175460e+02 1.526008e+02 2.319587e+02 2.022139e+02 2.147729e+02 1.637577e+02 1.936410e+02 1.332145e+02 1.152525e+02 1.805943e+02 4.567231e+02 9.273699e+00 6.687650e+00 1.074288e+01 9.849487e+00 1.427223e+01 1.303016e+01 1.192496e+01 1.233824e+01 1.198256e+01 1.057268e+01 8.962433e+00 1.012724e+01 9.489470e+00 1.371248e+00 1.073804e+00 1.748042e+00 1.697478e+00 2.528071e+00 2.288778e+00 2.146236e+00 2.317448e+00 2.210073e+00 2.042326e+00 1.697587e+00 1.829344e+00 1.417115e+00
<GCONST> 1.781143e+02
<TRANSP> 5
 0.000000e+00 1.000000e+00 0.000000e+00 0.000000e+00 0.000000e+00
 0.000000e+00 6.000000e-01 4.000000e-01 0.000000e+00 0.000000e+00
 0.000000e+00 0.000000e+00 6.000000e-01 4.000000e-01 0.000000e+00
 0.000000e+00 0.000000e+00 0.000000e+00 7.000000e-01 3.000000e-01
 0.000000e+00 0.000000e+00 0.000000e+00 0.000000e+00 0.000000e+00
<ENDHMM>
